Language model created by QuickLM on Fri Feb 27 01:57:32 EST 2015
Copyright (c) 1996-2010 Carnegie Mellon University and Alexander I. Rudnicky

The model is in standard ARPA format, designed by Doug Paul while he was at MITRE.

The code that was used to produce this language model is available in Open Source.
Please visit http://www.speech.cs.cmu.edu/tools/ for more information

The (fixed) discount mass is 0.5. The backoffs are computed using the ratio method.
This model based on a corpus of 10 sentences and 7 words

\data\
ngram 1=7
ngram 2=16
ngram 3=24

\1-grams:
-0.7782 </s> -0.2218
-0.7782 <s> -0.1249
-1.7782 LIGHT -0.2632
-1.4771 LIGHTS -0.2632
-1.3802 OFF -0.2218
-1.3802 ON -0.2218
-1.4771 TURN -0.2472

\2-grams:
-0.6021 </s> </s> -0.3010
-0.6021 <s> <s> -0.1761
-1.3010 <s> LIGHT 0.0000
-1.3010 <s> LIGHTS 0.0000
-1.6021 <s> OFF 0.0000
-1.6021 <s> ON 0.0000
-1.0000 <s> TURN 0.0000
-0.6021 LIGHT OFF 0.0000
-0.6021 LIGHT ON 0.0000
-0.6021 LIGHTS OFF 0.0000
-0.6021 LIGHTS ON 0.0000
-0.3010 OFF </s> -0.1761
-0.3010 ON </s> -0.1761
-0.6021 TURN LIGHTS 0.0000
-0.9031 TURN OFF 0.0000
-0.9031 TURN ON 0.0000

\3-grams:
-1.0000 <s> <s> LIGHT
-1.0000 <s> <s> LIGHTS
-1.3010 <s> <s> OFF
-1.3010 <s> <s> ON
-0.6990 <s> <s> TURN
-0.6021 <s> LIGHT OFF
-0.6021 <s> LIGHT ON
-0.6021 <s> LIGHTS OFF
-0.6021 <s> LIGHTS ON
-0.3010 <s> OFF </s>
-0.3010 <s> ON </s>
-0.6021 <s> TURN LIGHTS
-0.9031 <s> TURN OFF
-0.9031 <s> TURN ON
-0.3010 LIGHT OFF </s>
-0.3010 LIGHT ON </s>
-0.3010 LIGHTS OFF </s>
-0.3010 LIGHTS ON </s>
-0.3010 OFF </s> </s>
-0.3010 ON </s> </s>
-0.6021 TURN LIGHTS OFF
-0.6021 TURN LIGHTS ON
-0.3010 TURN OFF </s>
-0.3010 TURN ON </s>

\end\
